digraph Tree {
node [shape=box] ;
0 [label="Income <= 113.5\ngini = 0.174\nsamples = 3750\nvalue = [3390, 360]"] ;
1 [label="CCAvg <= 2.95\ngini = 0.039\nsamples = 3034\nvalue = [2973, 61]"] ;
0 -> 1 [labeldistance=2.5, labelangle=45, headlabel="True"] ;
2 [label="Income <= 106.5\ngini = 0.007\nsamples = 2812\nvalue = [2802, 10]"] ;
1 -> 2 ;
3 [label="gini = 0.0\nsamples = 2742\nvalue = [2742, 0]"] ;
2 -> 3 ;
4 [label="CCAvg <= 2.725\ngini = 0.245\nsamples = 70\nvalue = [60, 10]"] ;
2 -> 4 ;
5 [label="CCAvg <= 1.95\ngini = 0.23\nsamples = 68\nvalue = [59, 9]"] ;
4 -> 5 ;
6 [label="CCAvg <= 1.85\ngini = 0.303\nsamples = 43\nvalue = [35, 8]"] ;
5 -> 6 ;
7 [label="gini = 0.278\nsamples = 42\nvalue = [35, 7]"] ;
6 -> 7 ;
8 [label="gini = 0.0\nsamples = 1\nvalue = [0, 1]"] ;
6 -> 8 ;
9 [label="CCAvg <= 2.45\ngini = 0.077\nsamples = 25\nvalue = [24, 1]"] ;
5 -> 9 ;
10 [label="gini = 0.0\nsamples = 20\nvalue = [20, 0]"] ;
9 -> 10 ;
11 [label="gini = 0.32\nsamples = 5\nvalue = [4, 1]"] ;
9 -> 11 ;
12 [label="Income <= 110.5\ngini = 0.5\nsamples = 2\nvalue = [1, 1]"] ;
4 -> 12 ;
13 [label="gini = 0.0\nsamples = 1\nvalue = [0, 1]"] ;
12 -> 13 ;
14 [label="gini = 0.0\nsamples = 1\nvalue = [1, 0]"] ;
12 -> 14 ;
15 [label="Income <= 91.5\ngini = 0.354\nsamples = 222\nvalue = [171, 51]"] ;
1 -> 15 ;
16 [label="CCAvg <= 3.55\ngini = 0.242\nsamples = 135\nvalue = [116, 19]"] ;
15 -> 16 ;
17 [label="CCAvg <= 3.25\ngini = 0.385\nsamples = 50\nvalue = [37, 13]"] ;
16 -> 17 ;
18 [label="CCAvg <= 3.15\ngini = 0.257\nsamples = 33\nvalue = [28, 5]"] ;
17 -> 18 ;
19 [label="gini = 0.351\nsamples = 22\nvalue = [17, 5]"] ;
18 -> 19 ;
20 [label="gini = 0.0\nsamples = 11\nvalue = [11, 0]"] ;
18 -> 20 ;
21 [label="Education <= 2.5\ngini = 0.498\nsamples = 17\nvalue = [9, 8]"] ;
17 -> 21 ;
22 [label="gini = 0.459\nsamples = 14\nvalue = [9, 5]"] ;
21 -> 22 ;
23 [label="gini = 0.0\nsamples = 3\nvalue = [0, 3]"] ;
21 -> 23 ;
24 [label="Income <= 88.5\ngini = 0.131\nsamples = 85\nvalue = [79, 6]"] ;
16 -> 24 ;
25 [label="Income <= 81.5\ngini = 0.078\nsamples = 74\nvalue = [71, 3]"] ;
24 -> 25 ;
26 [label="gini = 0.0\nsamples = 46\nvalue = [46, 0]"] ;
25 -> 26 ;
27 [label="gini = 0.191\nsamples = 28\nvalue = [25, 3]"] ;
25 -> 27 ;
28 [label="CCAvg <= 4.2\ngini = 0.397\nsamples = 11\nvalue = [8, 3]"] ;
24 -> 28 ;
29 [label="gini = 0.375\nsamples = 4\nvalue = [1, 3]"] ;
28 -> 29 ;
30 [label="gini = 0.0\nsamples = 7\nvalue = [7, 0]"] ;
28 -> 30 ;
31 [label="Education <= 1.5\ngini = 0.465\nsamples = 87\nvalue = [55, 32]"] ;
15 -> 31 ;
32 [label="CCAvg <= 4.25\ngini = 0.298\nsamples = 55\nvalue = [45, 10]"] ;
31 -> 32 ;
33 [label="CCAvg <= 3.05\ngini = 0.461\nsamples = 25\nvalue = [16, 9]"] ;
32 -> 33 ;
34 [label="gini = 0.0\nsamples = 2\nvalue = [0, 2]"] ;
33 -> 34 ;
35 [label="gini = 0.423\nsamples = 23\nvalue = [16, 7]"] ;
33 -> 35 ;
36 [label="Income <= 100.0\ngini = 0.064\nsamples = 30\nvalue = [29, 1]"] ;
32 -> 36 ;
37 [label="gini = 0.219\nsamples = 8\nvalue = [7, 1]"] ;
36 -> 37 ;
38 [label="gini = 0.0\nsamples = 22\nvalue = [22, 0]"] ;
36 -> 38 ;
39 [label="Education <= 2.5\ngini = 0.43\nsamples = 32\nvalue = [10, 22]"] ;
31 -> 39 ;
40 [label="CCAvg <= 3.533\ngini = 0.231\nsamples = 15\nvalue = [2, 13]"] ;
39 -> 40 ;
41 [label="gini = 0.48\nsamples = 5\nvalue = [2, 3]"] ;
40 -> 41 ;
42 [label="gini = 0.0\nsamples = 10\nvalue = [0, 10]"] ;
40 -> 42 ;
43 [label="CCAvg <= 4.65\ngini = 0.498\nsamples = 17\nvalue = [8, 9]"] ;
39 -> 43 ;
44 [label="gini = 0.473\nsamples = 13\nvalue = [8, 5]"] ;
43 -> 44 ;
45 [label="gini = 0.0\nsamples = 4\nvalue = [0, 4]"] ;
43 -> 45 ;
46 [label="Education <= 1.5\ngini = 0.486\nsamples = 716\nvalue = [417, 299]"] ;
0 -> 46 [labeldistance=2.5, labelangle=-45, headlabel="False"] ;
47 [label="CCAvg <= 6.633\ngini = 0.195\nsamples = 456\nvalue = [406, 50]"] ;
46 -> 47 ;
48 [label="CCAvg <= 5.25\ngini = 0.233\nsamples = 357\nvalue = [309, 48]"] ;
47 -> 48 ;
49 [label="Income <= 169.5\ngini = 0.202\nsamples = 307\nvalue = [272, 35]"] ;
48 -> 49 ;
50 [label="CCAvg <= 4.05\ngini = 0.161\nsamples = 249\nvalue = [227, 22]"] ;
49 -> 50 ;
51 [label="gini = 0.145\nsamples = 203\nvalue = [187, 16]"] ;
50 -> 51 ;
52 [label="gini = 0.227\nsamples = 46\nvalue = [40, 6]"] ;
50 -> 52 ;
53 [label="Income <= 179.5\ngini = 0.348\nsamples = 58\nvalue = [45, 13]"] ;
49 -> 53 ;
54 [label="gini = 0.469\nsamples = 24\nvalue = [15, 9]"] ;
53 -> 54 ;
55 [label="gini = 0.208\nsamples = 34\nvalue = [30, 4]"] ;
53 -> 55 ;
56 [label="CCAvg <= 5.65\ngini = 0.385\nsamples = 50\nvalue = [37, 13]"] ;
48 -> 56 ;
57 [label="Income <= 134.0\ngini = 0.486\nsamples = 12\nvalue = [5, 7]"] ;
56 -> 57 ;
58 [label="gini = 0.278\nsamples = 6\nvalue = [5, 1]"] ;
57 -> 58 ;
59 [label="gini = 0.0\nsamples = 6\nvalue = [0, 6]"] ;
57 -> 59 ;
60 [label="CCAvg <= 6.55\ngini = 0.266\nsamples = 38\nvalue = [32, 6]"] ;
56 -> 60 ;
61 [label="gini = 0.234\nsamples = 37\nvalue = [32, 5]"] ;
60 -> 61 ;
62 [label="gini = 0.0\nsamples = 1\nvalue = [0, 1]"] ;
60 -> 62 ;
63 [label="Income <= 183.5\ngini = 0.04\nsamples = 99\nvalue = [97, 2]"] ;
47 -> 63 ;
64 [label="CCAvg <= 6.95\ngini = 0.023\nsamples = 85\nvalue = [84, 1]"] ;
63 -> 64 ;
65 [label="CCAvg <= 6.85\ngini = 0.087\nsamples = 22\nvalue = [21, 1]"] ;
64 -> 65 ;
66 [label="gini = 0.0\nsamples = 14\nvalue = [14, 0]"] ;
65 -> 66 ;
67 [label="gini = 0.219\nsamples = 8\nvalue = [7, 1]"] ;
65 -> 67 ;
68 [label="gini = 0.0\nsamples = 63\nvalue = [63, 0]"] ;
64 -> 68 ;
69 [label="Income <= 184.5\ngini = 0.133\nsamples = 14\nvalue = [13, 1]"] ;
63 -> 69 ;
70 [label="CCAvg <= 7.8\ngini = 0.444\nsamples = 3\nvalue = [2, 1]"] ;
69 -> 70 ;
71 [label="gini = 0.0\nsamples = 1\nvalue = [0, 1]"] ;
70 -> 71 ;
72 [label="gini = 0.0\nsamples = 2\nvalue = [2, 0]"] ;
70 -> 72 ;
73 [label="gini = 0.0\nsamples = 11\nvalue = [11, 0]"] ;
69 -> 73 ;
74 [label="Income <= 116.5\ngini = 0.081\nsamples = 260\nvalue = [11, 249]"] ;
46 -> 74 ;
75 [label="CCAvg <= 3.6\ngini = 0.495\nsamples = 20\nvalue = [11, 9]"] ;
74 -> 75 ;
76 [label="CCAvg <= 0.55\ngini = 0.391\nsamples = 15\nvalue = [11, 4]"] ;
75 -> 76 ;
77 [label="gini = 0.0\nsamples = 1\nvalue = [0, 1]"] ;
76 -> 77 ;
78 [label="CCAvg <= 2.15\ngini = 0.337\nsamples = 14\nvalue = [11, 3]"] ;
76 -> 78 ;
79 [label="gini = 0.0\nsamples = 7\nvalue = [7, 0]"] ;
78 -> 79 ;
80 [label="gini = 0.49\nsamples = 7\nvalue = [4, 3]"] ;
78 -> 80 ;
81 [label="gini = 0.0\nsamples = 5\nvalue = [0, 5]"] ;
75 -> 81 ;
82 [label="gini = 0.0\nsamples = 240\nvalue = [0, 240]"] ;
74 -> 82 ;
}