digraph Tree {
node [shape=box] ;
0 [label="Sex <= 0.5\ngini = 0.473\nsamples = 891\nvalue = [549, 342]"] ;
1 [label="Fare <= 48.2\ngini = 0.383\nsamples = 314\nvalue = [81, 233]"] ;
0 -> 1 [labeldistance=2.5, labelangle=45, headlabel="True"] ;
2 [label="Fare <= 27.825\ngini = 0.447\nsamples = 225\nvalue = [76, 149]"] ;
1 -> 2 ;
3 [label="Fare <= 25.698\ngini = 0.428\nsamples = 193\nvalue = [60, 133]"] ;
2 -> 3 ;
4 [label="Fare <= 24.075\ngini = 0.453\nsamples = 167\nvalue = [58, 109]"] ;
3 -> 4 ;
5 [label="Fare <= 10.481\ngini = 0.442\nsamples = 161\nvalue = [53, 108]"] ;
4 -> 5 ;
6 [label="Fare <= 8.04\ngini = 0.489\nsamples = 66\nvalue = [28, 38]"] ;
5 -> 6 ;
7 [label="Age <= 30.1\ngini = 0.425\nsamples = 49\nvalue = [15, 34]"] ;
6 -> 7 ;
8 [label="Fare <= 6.987\ngini = 0.386\nsamples = 46\nvalue = [12, 34]"] ;
7 -> 8 ;
9 [label="gini = 0.0\nsamples = 1\nvalue = [1, 0]"] ;
8 -> 9 ;
10 [label="Fare <= 7.523\ngini = 0.369\nsamples = 45\nvalue = [11, 34]"] ;
8 -> 10 ;
11 [label="gini = 0.0\nsamples = 6\nvalue = [0, 6]"] ;
10 -> 11 ;
12 [label="Age <= 14.5\ngini = 0.405\nsamples = 39\nvalue = [11, 28]"] ;
10 -> 12 ;
13 [label="gini = 0.0\nsamples = 1\nvalue = [1, 0]"] ;
12 -> 13 ;
14 [label="Fare <= 7.64\ngini = 0.388\nsamples = 38\nvalue = [10, 28]"] ;
12 -> 14 ;
15 [label="Age <= 26.35\ngini = 0.444\nsamples = 3\nvalue = [2, 1]"] ;
14 -> 15 ;
16 [label="gini = 0.0\nsamples = 1\nvalue = [0, 1]"] ;
15 -> 16 ;
17 [label="gini = 0.0\nsamples = 2\nvalue = [2, 0]"] ;
15 -> 17 ;
18 [label="Fare <= 7.888\ngini = 0.353\nsamples = 35\nvalue = [8, 27]"] ;
14 -> 18 ;
19 [label="Fare <= 7.781\ngini = 0.293\nsamples = 28\nvalue = [5, 23]"] ;
18 -> 19 ;
20 [label="Fare <= 7.763\ngini = 0.375\nsamples = 20\nvalue = [5, 15]"] ;
19 -> 20 ;
21 [label="Fare <= 7.744\ngini = 0.291\nsamples = 17\nvalue = [3, 14]"] ;
20 -> 21 ;
22 [label="gini = 0.0\nsamples = 4\nvalue = [0, 4]"] ;
21 -> 22 ;
23 [label="Age <= 21.5\ngini = 0.355\nsamples = 13\nvalue = [3, 10]"] ;
21 -> 23 ;
24 [label="Age <= 18.5\ngini = 0.5\nsamples = 2\nvalue = [1, 1]"] ;
23 -> 24 ;
25 [label="gini = 0.0\nsamples = 1\nvalue = [0, 1]"] ;
24 -> 25 ;
26 [label="gini = 0.0\nsamples = 1\nvalue = [1, 0]"] ;
24 -> 26 ;
27 [label="Age <= 25.85\ngini = 0.298\nsamples = 11\nvalue = [2, 9]"] ;
23 -> 27 ;
28 [label="gini = 0.0\nsamples = 2\nvalue = [0, 2]"] ;
27 -> 28 ;
29 [label="gini = 0.346\nsamples = 9\nvalue = [2, 7]"] ;
27 -> 29 ;
30 [label="Age <= 20.0\ngini = 0.444\nsamples = 3\nvalue = [2, 1]"] ;
20 -> 30 ;
31 [label="gini = 0.0\nsamples = 1\nvalue = [1, 0]"] ;
30 -> 31 ;
32 [label="Age <= 23.5\ngini = 0.5\nsamples = 2\nvalue = [1, 1]"] ;
30 -> 32 ;
33 [label="gini = 0.0\nsamples = 1\nvalue = [0, 1]"] ;
32 -> 33 ;
34 [label="gini = 0.0\nsamples = 1\nvalue = [1, 0]"] ;
32 -> 34 ;
35 [label="gini = 0.0\nsamples = 8\nvalue = [0, 8]"] ;
19 -> 35 ;
36 [label="Age <= 20.0\ngini = 0.49\nsamples = 7\nvalue = [3, 4]"] ;
18 -> 36 ;
37 [label="gini = 0.0\nsamples = 2\nvalue = [0, 2]"] ;
36 -> 37 ;
38 [label="Age <= 25.5\ngini = 0.48\nsamples = 5\nvalue = [3, 2]"] ;
36 -> 38 ;
39 [label="gini = 0.0\nsamples = 2\nvalue = [2, 0]"] ;
38 -> 39 ;
40 [label="Age <= 27.5\ngini = 0.444\nsamples = 3\nvalue = [1, 2]"] ;
38 -> 40 ;
41 [label="gini = 0.0\nsamples = 2\nvalue = [0, 2]"] ;
40 -> 41 ;
42 [label="gini = 0.0\nsamples = 1\nvalue = [1, 0]"] ;
40 -> 42 ;
43 [label="gini = 0.0\nsamples = 3\nvalue = [3, 0]"] ;
7 -> 43 ;
44 [label="Age <= 19.0\ngini = 0.36\nsamples = 17\nvalue = [13, 4]"] ;
6 -> 44 ;
45 [label="Age <= 10.0\ngini = 0.444\nsamples = 3\nvalue = [1, 2]"] ;
44 -> 45 ;
46 [label="gini = 0.0\nsamples = 1\nvalue = [1, 0]"] ;
45 -> 46 ;
47 [label="gini = 0.0\nsamples = 2\nvalue = [0, 2]"] ;
45 -> 47 ;
48 [label="Age <= 51.5\ngini = 0.245\nsamples = 14\nvalue = [12, 2]"] ;
44 -> 48 ;
49 [label="Age <= 30.5\ngini = 0.142\nsamples = 13\nvalue = [12, 1]"] ;
48 -> 49 ;
50 [label="gini = 0.0\nsamples = 10\nvalue = [10, 0]"] ;
49 -> 50 ;
51 [label="Age <= 34.0\ngini = 0.444\nsamples = 3\nvalue = [2, 1]"] ;
49 -> 51 ;
52 [label="gini = 0.0\nsamples = 1\nvalue = [0, 1]"] ;
51 -> 52 ;
53 [label="gini = 0.0\nsamples = 2\nvalue = [2, 0]"] ;
51 -> 53 ;
54 [label="gini = 0.0\nsamples = 1\nvalue = [0, 1]"] ;
48 -> 54 ;
55 [label="Fare <= 14.129\ngini = 0.388\nsamples = 95\nvalue = [25, 70]"] ;
5 -> 55 ;
56 [label="Age <= 53.5\ngini = 0.188\nsamples = 38\nvalue = [4, 34]"] ;
55 -> 56 ;
57 [label="Age <= 25.5\ngini = 0.149\nsamples = 37\nvalue = [3, 34]"] ;
56 -> 57 ;
58 [label="Age <= 21.5\ngini = 0.26\nsamples = 13\nvalue = [2, 11]"] ;
57 -> 58 ;
59 [label="gini = 0.0\nsamples = 9\nvalue = [0, 9]"] ;
58 -> 59 ;
60 [label="Fare <= 11.758\ngini = 0.5\nsamples = 4\nvalue = [2, 2]"] ;
58 -> 60 ;
61 [label="gini = 0.0\nsamples = 1\nvalue = [1, 0]"] ;
60 -> 61 ;
62 [label="Age <= 23.5\ngini = 0.444\nsamples = 3\nvalue = [1, 2]"] ;
60 -> 62 ;
63 [label="gini = 0.0\nsamples = 1\nvalue = [0, 1]"] ;
62 -> 63 ;
64 [label="gini = 0.5\nsamples = 2\nvalue = [1, 1]"] ;
62 -> 64 ;
65 [label="Age <= 37.0\ngini = 0.08\nsamples = 24\nvalue = [1, 23]"] ;
57 -> 65 ;
66 [label="gini = 0.0\nsamples = 18\nvalue = [0, 18]"] ;
65 -> 66 ;
67 [label="Age <= 39.0\ngini = 0.278\nsamples = 6\nvalue = [1, 5]"] ;
65 -> 67 ;
68 [label="gini = 0.0\nsamples = 1\nvalue = [1, 0]"] ;
67 -> 68 ;
69 [label="gini = 0.0\nsamples = 5\nvalue = [0, 5]"] ;
67 -> 69 ;
70 [label="gini = 0.0\nsamples = 1\nvalue = [1, 0]"] ;
56 -> 70 ;
71 [label="Fare <= 15.373\ngini = 0.465\nsamples = 57\nvalue = [21, 36]"] ;
55 -> 71 ;
72 [label="Age <= 29.35\ngini = 0.355\nsamples = 13\nvalue = [10, 3]"] ;
71 -> 72 ;
73 [label="Age <= 28.5\ngini = 0.469\nsamples = 8\nvalue = [5, 3]"] ;
72 -> 73 ;
74 [label="Age <= 14.75\ngini = 0.408\nsamples = 7\nvalue = [5, 2]"] ;
73 -> 74 ;
75 [label="gini = 0.0\nsamples = 2\nvalue = [2, 0]"] ;
74 -> 75 ;
76 [label="Age <= 16.0\ngini = 0.48\nsamples = 5\nvalue = [3, 2]"] ;
74 -> 76 ;
77 [label="gini = 0.0\nsamples = 1\nvalue = [0, 1]"] ;
76 -> 77 ;
78 [label="Fare <= 14.479\ngini = 0.375\nsamples = 4\nvalue = [3, 1]"] ;
76 -> 78 ;
79 [label="gini = 0.0\nsamples = 3\nvalue = [3, 0]"] ;
78 -> 79 ;
80 [label="gini = 0.0\nsamples = 1\nvalue = [0, 1]"] ;
78 -> 80 ;
81 [label="gini = 0.0\nsamples = 1\nvalue = [0, 1]"] ;
73 -> 81 ;
82 [label="gini = 0.0\nsamples = 5\nvalue = [5, 0]"] ;
72 -> 82 ;
83 [label="Fare <= 17.6\ngini = 0.375\nsamples = 44\nvalue = [11, 33]"] ;
71 -> 83 ;
84 [label="Age <= 25.0\ngini = 0.231\nsamples = 15\nvalue = [2, 13]"] ;
83 -> 84 ;
85 [label="gini = 0.0\nsamples = 4\nvalue = [0, 4]"] ;
84 -> 85 ;
86 [label="Age <= 27.85\ngini = 0.298\nsamples = 11\nvalue = [2, 9]"] ;
84 -> 86 ;
87 [label="gini = 0.0\nsamples = 1\nvalue = [1, 0]"] ;
86 -> 87 ;
88 [label="Fare <= 15.625\ngini = 0.18\nsamples = 10\nvalue = [1, 9]"] ;
86 -> 88 ;
89 [label="Age <= 30.85\ngini = 0.375\nsamples = 4\nvalue = [1, 3]"] ;
88 -> 89 ;
90 [label="gini = 0.0\nsamples = 3\nvalue = [0, 3]"] ;
89 -> 90 ;
91 [label="gini = 0.0\nsamples = 1\nvalue = [1, 0]"] ;
89 -> 91 ;
92 [label="gini = 0.0\nsamples = 6\nvalue = [0, 6]"] ;
88 -> 92 ;
93 [label="Fare <= 18.375\ngini = 0.428\nsamples = 29\nvalue = [9, 20]"] ;
83 -> 93 ;
94 [label="gini = 0.0\nsamples = 3\nvalue = [3, 0]"] ;
93 -> 94 ;
95 [label="Fare <= 19.856\ngini = 0.355\nsamples = 26\nvalue = [6, 20]"] ;
93 -> 95 ;
96 [label="gini = 0.0\nsamples = 7\nvalue = [0, 7]"] ;
95 -> 96 ;
97 [label="Fare <= 21.55\ngini = 0.432\nsamples = 19\nvalue = [6, 13]"] ;
95 -> 97 ;
98 [label="Age <= 29.5\ngini = 0.494\nsamples = 9\nvalue = [5, 4]"] ;
97 -> 98 ;
99 [label="gini = 0.0\nsamples = 4\nvalue = [4, 0]"] ;
98 -> 99 ;
100 [label="Fare <= 20.231\ngini = 0.32\nsamples = 5\nvalue = [1, 4]"] ;
98 -> 100 ;
101 [label="gini = 0.0\nsamples = 1\nvalue = [1, 0]"] ;
100 -> 101 ;
102 [label="gini = 0.0\nsamples = 4\nvalue = [0, 4]"] ;
100 -> 102 ;
103 [label="Fare <= 23.35\ngini = 0.18\nsamples = 10\nvalue = [1, 9]"] ;
97 -> 103 ;
104 [label="gini = 0.0\nsamples = 8\nvalue = [0, 8]"] ;
103 -> 104 ;
105 [label="Age <= 28.85\ngini = 0.5\nsamples = 2\nvalue = [1, 1]"] ;
103 -> 105 ;
106 [label="gini = 0.0\nsamples = 1\nvalue = [0, 1]"] ;
105 -> 106 ;
107 [label="gini = 0.0\nsamples = 1\nvalue = [1, 0]"] ;
105 -> 107 ;
108 [label="Fare <= 24.808\ngini = 0.278\nsamples = 6\nvalue = [5, 1]"] ;
4 -> 108 ;
109 [label="Age <= 19.85\ngini = 0.444\nsamples = 3\nvalue = [2, 1]"] ;
108 -> 109 ;
110 [label="gini = 0.0\nsamples = 1\nvalue = [1, 0]"] ;
109 -> 110 ;
111 [label="Age <= 29.85\ngini = 0.5\nsamples = 2\nvalue = [1, 1]"] ;
109 -> 111 ;
112 [label="gini = 0.0\nsamples = 1\nvalue = [0, 1]"] ;
111 -> 112 ;
113 [label="gini = 0.0\nsamples = 1\nvalue = [1, 0]"] ;
111 -> 113 ;
114 [label="gini = 0.0\nsamples = 3\nvalue = [3, 0]"] ;
108 -> 114 ;
115 [label="Fare <= 26.125\ngini = 0.142\nsamples = 26\nvalue = [2, 24]"] ;
3 -> 115 ;
116 [label="Age <= 25.5\ngini = 0.219\nsamples = 16\nvalue = [2, 14]"] ;
115 -> 116 ;
117 [label="gini = 0.0\nsamples = 5\nvalue = [0, 5]"] ;
116 -> 117 ;
118 [label="Age <= 27.0\ngini = 0.298\nsamples = 11\nvalue = [2, 9]"] ;
116 -> 118 ;
119 [label="gini = 0.0\nsamples = 1\nvalue = [1, 0]"] ;
118 -> 119 ;
120 [label="Age <= 43.0\ngini = 0.18\nsamples = 10\nvalue = [1, 9]"] ;
118 -> 120 ;
121 [label="gini = 0.0\nsamples = 6\nvalue = [0, 6]"] ;
120 -> 121 ;
122 [label="Age <= 46.0\ngini = 0.375\nsamples = 4\nvalue = [1, 3]"] ;
120 -> 122 ;
123 [label="gini = 0.0\nsamples = 1\nvalue = [1, 0]"] ;
122 -> 123 ;
124 [label="gini = 0.0\nsamples = 3\nvalue = [0, 3]"] ;
122 -> 124 ;
125 [label="gini = 0.0\nsamples = 10\nvalue = [0, 10]"] ;
115 -> 125 ;
126 [label="Fare <= 28.856\ngini = 0.5\nsamples = 32\nvalue = [16, 16]"] ;
2 -> 126 ;
127 [label="gini = 0.0\nsamples = 4\nvalue = [4, 0]"] ;
126 -> 127 ;
128 [label="Age <= 38.5\ngini = 0.49\nsamples = 28\nvalue = [12, 16]"] ;
126 -> 128 ;
129 [label="Age <= 21.5\ngini = 0.444\nsamples = 21\nvalue = [7, 14]"] ;
128 -> 129 ;
130 [label="Fare <= 30.673\ngini = 0.5\nsamples = 14\nvalue = [7, 7]"] ;
129 -> 130 ;
131 [label="gini = 0.0\nsamples = 2\nvalue = [0, 2]"] ;
130 -> 131 ;
132 [label="Fare <= 31.331\ngini = 0.486\nsamples = 12\nvalue = [7, 5]"] ;
130 -> 132 ;
133 [label="gini = 0.0\nsamples = 4\nvalue = [4, 0]"] ;
132 -> 133 ;
134 [label="Age <= 7.5\ngini = 0.469\nsamples = 8\nvalue = [3, 5]"] ;
132 -> 134 ;
135 [label="gini = 0.0\nsamples = 4\nvalue = [0, 4]"] ;
134 -> 135 ;
136 [label="Fare <= 36.888\ngini = 0.375\nsamples = 4\nvalue = [3, 1]"] ;
134 -> 136 ;
137 [label="gini = 0.0\nsamples = 2\nvalue = [2, 0]"] ;
136 -> 137 ;
138 [label="Fare <= 43.15\ngini = 0.5\nsamples = 2\nvalue = [1, 1]"] ;
136 -> 138 ;
139 [label="gini = 0.0\nsamples = 1\nvalue = [0, 1]"] ;
138 -> 139 ;
140 [label="gini = 0.0\nsamples = 1\nvalue = [1, 0]"] ;
138 -> 140 ;
141 [label="gini = 0.0\nsamples = 7\nvalue = [0, 7]"] ;
129 -> 141 ;
142 [label="Fare <= 36.688\ngini = 0.408\nsamples = 7\nvalue = [5, 2]"] ;
128 -> 142 ;
143 [label="gini = 0.0\nsamples = 3\nvalue = [3, 0]"] ;
142 -> 143 ;
144 [label="Fare <= 39.644\ngini = 0.5\nsamples = 4\nvalue = [2, 2]"] ;
142 -> 144 ;
145 [label="gini = 0.0\nsamples = 2\nvalue = [0, 2]"] ;
144 -> 145 ;
146 [label="gini = 0.0\nsamples = 2\nvalue = [2, 0]"] ;
144 -> 146 ;
147 [label="Age <= 8.0\ngini = 0.106\nsamples = 89\nvalue = [5, 84]"] ;
1 -> 147 ;
148 [label="gini = 0.0\nsamples = 1\nvalue = [1, 0]"] ;
147 -> 148 ;
149 [label="Age <= 29.85\ngini = 0.087\nsamples = 88\nvalue = [4, 84]"] ;
147 -> 149 ;
150 [label="Age <= 24.5\ngini = 0.184\nsamples = 39\nvalue = [4, 35]"] ;
149 -> 150 ;
151 [label="gini = 0.0\nsamples = 24\nvalue = [0, 24]"] ;
150 -> 151 ;
152 [label="Age <= 25.5\ngini = 0.391\nsamples = 15\nvalue = [4, 11]"] ;
150 -> 152 ;
153 [label="gini = 0.0\nsamples = 1\nvalue = [1, 0]"] ;
152 -> 153 ;
154 [label="Fare <= 74.2\ngini = 0.337\nsamples = 14\nvalue = [3, 11]"] ;
152 -> 154 ;
155 [label="Fare <= 62.275\ngini = 0.5\nsamples = 6\nvalue = [3, 3]"] ;
154 -> 155 ;
156 [label="gini = 0.0\nsamples = 3\nvalue = [0, 3]"] ;
155 -> 156 ;
157 [label="gini = 0.0\nsamples = 3\nvalue = [3, 0]"] ;
155 -> 157 ;
158 [label="gini = 0.0\nsamples = 8\nvalue = [0, 8]"] ;
154 -> 158 ;
159 [label="gini = 0.0\nsamples = 49\nvalue = [0, 49]"] ;
149 -> 159 ;
160 [label="Age <= 6.5\ngini = 0.306\nsamples = 577\nvalue = [468, 109]"] ;
0 -> 160 [labeldistance=2.5, labelangle=-45, headlabel="False"] ;
161 [label="Fare <= 20.825\ngini = 0.444\nsamples = 24\nvalue = [8, 16]"] ;
160 -> 161 ;
162 [label="gini = 0.0\nsamples = 8\nvalue = [0, 8]"] ;
161 -> 162 ;
163 [label="Age <= 0.96\ngini = 0.5\nsamples = 16\nvalue = [8, 8]"] ;
161 -> 163 ;
164 [label="gini = 0.0\nsamples = 2\nvalue = [0, 2]"] ;
163 -> 164 ;
165 [label="Fare <= 64.379\ngini = 0.49\nsamples = 14\nvalue = [8, 6]"] ;
163 -> 165 ;
166 [label="Age <= 3.5\ngini = 0.473\nsamples = 13\nvalue = [8, 5]"] ;
165 -> 166 ;
167 [label="Fare <= 39.344\ngini = 0.5\nsamples = 10\nvalue = [5, 5]"] ;
166 -> 167 ;
168 [label="Fare <= 23.538\ngini = 0.408\nsamples = 7\nvalue = [2, 5]"] ;
167 -> 168 ;
169 [label="gini = 0.0\nsamples = 1\nvalue = [1, 0]"] ;
168 -> 169 ;
170 [label="Fare <= 30.256\ngini = 0.278\nsamples = 6\nvalue = [1, 5]"] ;
168 -> 170 ;
171 [label="Fare <= 27.562\ngini = 0.444\nsamples = 3\nvalue = [1, 2]"] ;
170 -> 171 ;
172 [label="gini = 0.0\nsamples = 2\nvalue = [0, 2]"] ;
171 -> 172 ;
173 [label="gini = 0.0\nsamples = 1\nvalue = [1, 0]"] ;
171 -> 173 ;
174 [label="gini = 0.0\nsamples = 3\nvalue = [0, 3]"] ;
170 -> 174 ;
175 [label="gini = 0.0\nsamples = 3\nvalue = [3, 0]"] ;
167 -> 175 ;
176 [label="gini = 0.0\nsamples = 3\nvalue = [3, 0]"] ;
166 -> 176 ;
177 [label="gini = 0.0\nsamples = 1\nvalue = [0, 1]"] ;
165 -> 177 ;
178 [label="Fare <= 26.269\ngini = 0.28\nsamples = 553\nvalue = [460, 93]"] ;
160 -> 178 ;
179 [label="Age <= 13.5\ngini = 0.194\nsamples = 404\nvalue = [360, 44]"] ;
178 -> 179 ;
180 [label="Age <= 10.0\ngini = 0.375\nsamples = 4\nvalue = [1, 3]"] ;
179 -> 180 ;
181 [label="gini = 0.0\nsamples = 2\nvalue = [0, 2]"] ;
180 -> 181 ;
182 [label="Fare <= 15.015\ngini = 0.5\nsamples = 2\nvalue = [1, 1]"] ;
180 -> 182 ;
183 [label="gini = 0.0\nsamples = 1\nvalue = [0, 1]"] ;
182 -> 183 ;
184 [label="gini = 0.0\nsamples = 1\nvalue = [1, 0]"] ;
182 -> 184 ;
185 [label="Age <= 32.5\ngini = 0.184\nsamples = 400\nvalue = [359, 41]"] ;
179 -> 185 ;
186 [label="Age <= 30.75\ngini = 0.209\nsamples = 295\nvalue = [260, 35]"] ;
185 -> 186 ;
187 [label="Fare <= 23.35\ngini = 0.187\nsamples = 278\nvalue = [249, 29]"] ;
186 -> 187 ;
188 [label="Fare <= 22.887\ngini = 0.194\nsamples = 267\nvalue = [238, 29]"] ;
187 -> 188 ;
189 [label="Fare <= 15.173\ngini = 0.188\nsamples = 266\nvalue = [238, 28]"] ;
188 -> 189 ;
190 [label="Age <= 29.35\ngini = 0.178\nsamples = 243\nvalue = [219, 24]"] ;
189 -> 190 ;
191 [label="Age <= 28.75\ngini = 0.205\nsamples = 147\nvalue = [130, 17]"] ;
190 -> 191 ;
192 [label="Fare <= 7.24\ngini = 0.182\nsamples = 138\nvalue = [124, 14]"] ;
191 -> 192 ;
193 [label="Age <= 19.5\ngini = 0.351\nsamples = 22\nvalue = [17, 5]"] ;
192 -> 193 ;
194 [label="gini = 0.0\nsamples = 7\nvalue = [7, 0]"] ;
193 -> 194 ;
195 [label="Fare <= 2.006\ngini = 0.444\nsamples = 15\nvalue = [10, 5]"] ;
193 -> 195 ;
196 [label="gini = 0.0\nsamples = 1\nvalue = [0, 1]"] ;
195 -> 196 ;
197 [label="Fare <= 7.133\ngini = 0.408\nsamples = 14\nvalue = [10, 4]"] ;
195 -> 197 ;
198 [label="Age <= 26.0\ngini = 0.245\nsamples = 7\nvalue = [6, 1]"] ;
197 -> 198 ;
199 [label="gini = 0.0\nsamples = 6\nvalue = [6, 0]"] ;
198 -> 199 ;
200 [label="gini = 0.0\nsamples = 1\nvalue = [0, 1]"] ;
198 -> 200 ;
201 [label="Age <= 24.5\ngini = 0.49\nsamples = 7\nvalue = [4, 3]"] ;
197 -> 201 ;
202 [label="Fare <= 7.227\ngini = 0.48\nsamples = 5\nvalue = [2, 3]"] ;
201 -> 202 ;
203 [label="gini = 0.0\nsamples = 2\nvalue = [0, 2]"] ;
202 -> 203 ;
204 [label="Age <= 21.0\ngini = 0.444\nsamples = 3\nvalue = [2, 1]"] ;
202 -> 204 ;
205 [label="gini = 0.0\nsamples = 1\nvalue = [0, 1]"] ;
204 -> 205 ;
206 [label="gini = 0.0\nsamples = 2\nvalue = [2, 0]"] ;
204 -> 206 ;
207 [label="gini = 0.0\nsamples = 2\nvalue = [2, 0]"] ;
201 -> 207 ;
208 [label="Fare <= 8.831\ngini = 0.143\nsamples = 116\nvalue = [107, 9]"] ;
192 -> 208 ;
209 [label="Fare <= 7.91\ngini = 0.188\nsamples = 76\nvalue = [68, 8]"] ;
208 -> 209 ;
210 [label="Fare <= 7.798\ngini = 0.117\nsamples = 48\nvalue = [45, 3]"] ;
209 -> 210 ;
211 [label="Fare <= 7.785\ngini = 0.204\nsamples = 26\nvalue = [23, 3]"] ;
210 -> 211 ;
212 [label="Age <= 24.5\ngini = 0.095\nsamples = 20\nvalue = [19, 1]"] ;
211 -> 212 ;
213 [label="gini = 0.0\nsamples = 14\nvalue = [14, 0]"] ;
212 -> 213 ;
214 [label="Fare <= 7.758\ngini = 0.278\nsamples = 6\nvalue = [5, 1]"] ;
212 -> 214 ;
215 [label="gini = 0.0\nsamples = 3\nvalue = [3, 0]"] ;
214 -> 215 ;
216 [label="Age <= 25.5\ngini = 0.444\nsamples = 3\nvalue = [2, 1]"] ;
214 -> 216 ;
217 [label="gini = 0.5\nsamples = 2\nvalue = [1, 1]"] ;
216 -> 217 ;
218 [label="gini = 0.0\nsamples = 1\nvalue = [1, 0]"] ;
216 -> 218 ;
219 [label="Age <= 19.5\ngini = 0.444\nsamples = 6\nvalue = [4, 2]"] ;
211 -> 219 ;
220 [label="gini = 0.0\nsamples = 1\nvalue = [1, 0]"] ;
219 -> 220 ;
221 [label="Age <= 21.5\ngini = 0.48\nsamples = 5\nvalue = [3, 2]"] ;
219 -> 221 ;
222 [label="gini = 0.0\nsamples = 1\nvalue = [0, 1]"] ;
221 -> 222 ;
223 [label="Age <= 25.5\ngini = 0.375\nsamples = 4\nvalue = [3, 1]"] ;
221 -> 223 ;
224 [label="gini = 0.0\nsamples = 2\nvalue = [2, 0]"] ;
223 -> 224 ;
225 [label="Age <= 27.5\ngini = 0.5\nsamples = 2\nvalue = [1, 1]"] ;
223 -> 225 ;
226 [label="gini = 0.0\nsamples = 1\nvalue = [0, 1]"] ;
225 -> 226 ;
227 [label="gini = 0.0\nsamples = 1\nvalue = [1, 0]"] ;
225 -> 227 ;
228 [label="gini = 0.0\nsamples = 22\nvalue = [22, 0]"] ;
210 -> 228 ;
229 [label="Age <= 20.5\ngini = 0.293\nsamples = 28\nvalue = [23, 5]"] ;
209 -> 229 ;
230 [label="Fare <= 8.104\ngini = 0.408\nsamples = 14\nvalue = [10, 4]"] ;
229 -> 230 ;
231 [label="Age <= 18.5\ngini = 0.5\nsamples = 8\nvalue = [4, 4]"] ;
230 -> 231 ;
232 [label="Age <= 17.0\ngini = 0.444\nsamples = 3\nvalue = [1, 2]"] ;
231 -> 232 ;
233 [label="gini = 0.5\nsamples = 2\nvalue = [1, 1]"] ;
232 -> 233 ;
234 [label="gini = 0.0\nsamples = 1\nvalue = [0, 1]"] ;
232 -> 234 ;
235 [label="Fare <= 7.988\ngini = 0.48\nsamples = 5\nvalue = [3, 2]"] ;
231 -> 235 ;
236 [label="gini = 0.5\nsamples = 2\nvalue = [1, 1]"] ;
235 -> 236 ;
237 [label="Age <= 19.5\ngini = 0.444\nsamples = 3\nvalue = [2, 1]"] ;
235 -> 237 ;
238 [label="gini = 0.5\nsamples = 2\nvalue = [1, 1]"] ;
237 -> 238 ;
239 [label="gini = 0.0\nsamples = 1\nvalue = [1, 0]"] ;
237 -> 239 ;
240 [label="gini = 0.0\nsamples = 6\nvalue = [6, 0]"] ;
230 -> 240 ;
241 [label="Age <= 26.5\ngini = 0.133\nsamples = 14\nvalue = [13, 1]"] ;
229 -> 241 ;
242 [label="gini = 0.0\nsamples = 12\nvalue = [12, 0]"] ;
241 -> 242 ;
243 [label="Age <= 27.5\ngini = 0.5\nsamples = 2\nvalue = [1, 1]"] ;
241 -> 243 ;
244 [label="gini = 0.0\nsamples = 1\nvalue = [0, 1]"] ;
243 -> 244 ;
245 [label="gini = 0.0\nsamples = 1\nvalue = [1, 0]"] ;
243 -> 245 ;
246 [label="Age <= 19.5\ngini = 0.049\nsamples = 40\nvalue = [39, 1]"] ;
208 -> 246 ;
247 [label="Age <= 18.5\ngini = 0.165\nsamples = 11\nvalue = [10, 1]"] ;
246 -> 247 ;
248 [label="gini = 0.0\nsamples = 6\nvalue = [6, 0]"] ;
247 -> 248 ;
249 [label="Fare <= 11.75\ngini = 0.32\nsamples = 5\nvalue = [4, 1]"] ;
247 -> 249 ;
250 [label="Fare <= 10.335\ngini = 0.444\nsamples = 3\nvalue = [2, 1]"] ;
249 -> 250 ;
251 [label="gini = 0.0\nsamples = 1\nvalue = [1, 0]"] ;
250 -> 251 ;
252 [label="gini = 0.5\nsamples = 2\nvalue = [1, 1]"] ;
250 -> 252 ;
253 [label="gini = 0.0\nsamples = 2\nvalue = [2, 0]"] ;
249 -> 253 ;
254 [label="gini = 0.0\nsamples = 29\nvalue = [29, 0]"] ;
246 -> 254 ;
255 [label="Fare <= 7.398\ngini = 0.444\nsamples = 9\nvalue = [6, 3]"] ;
191 -> 255 ;
256 [label="gini = 0.0\nsamples = 1\nvalue = [1, 0]"] ;
255 -> 256 ;
257 [label="Fare <= 7.763\ngini = 0.469\nsamples = 8\nvalue = [5, 3]"] ;
255 -> 257 ;
258 [label="gini = 0.0\nsamples = 1\nvalue = [0, 1]"] ;
257 -> 258 ;
259 [label="Fare <= 7.885\ngini = 0.408\nsamples = 7\nvalue = [5, 2]"] ;
257 -> 259 ;
260 [label="gini = 0.0\nsamples = 2\nvalue = [2, 0]"] ;
259 -> 260 ;
261 [label="Fare <= 7.973\ngini = 0.48\nsamples = 5\nvalue = [3, 2]"] ;
259 -> 261 ;
262 [label="gini = 0.0\nsamples = 1\nvalue = [0, 1]"] ;
261 -> 262 ;
263 [label="Fare <= 9.492\ngini = 0.375\nsamples = 4\nvalue = [3, 1]"] ;
261 -> 263 ;
264 [label="gini = 0.0\nsamples = 2\nvalue = [2, 0]"] ;
263 -> 264 ;
265 [label="Fare <= 10.0\ngini = 0.5\nsamples = 2\nvalue = [1, 1]"] ;
263 -> 265 ;
266 [label="gini = 0.0\nsamples = 1\nvalue = [0, 1]"] ;
265 -> 266 ;
267 [label="gini = 0.0\nsamples = 1\nvalue = [1, 0]"] ;
265 -> 267 ;
268 [label="Fare <= 8.081\ngini = 0.135\nsamples = 96\nvalue = [89, 7]"] ;
190 -> 268 ;
269 [label="Fare <= 7.802\ngini = 0.073\nsamples = 79\nvalue = [76, 3]"] ;
268 -> 269 ;
270 [label="Fare <= 7.763\ngini = 0.12\nsamples = 47\nvalue = [44, 3]"] ;
269 -> 270 ;
271 [label="Fare <= 7.227\ngini = 0.085\nsamples = 45\nvalue = [43, 2]"] ;
270 -> 271 ;
272 [label="gini = 0.0\nsamples = 17\nvalue = [17, 0]"] ;
271 -> 272 ;
273 [label="Fare <= 7.24\ngini = 0.133\nsamples = 28\nvalue = [26, 2]"] ;
271 -> 273 ;
274 [label="Age <= 29.85\ngini = 0.245\nsamples = 7\nvalue = [6, 1]"] ;
273 -> 274 ;
275 [label="gini = 0.278\nsamples = 6\nvalue = [5, 1]"] ;
274 -> 275 ;
276 [label="gini = 0.0\nsamples = 1\nvalue = [1, 0]"] ;
274 -> 276 ;
277 [label="Fare <= 7.744\ngini = 0.091\nsamples = 21\nvalue = [20, 1]"] ;
273 -> 277 ;
278 [label="gini = 0.0\nsamples = 10\nvalue = [10, 0]"] ;
277 -> 278 ;
279 [label="gini = 0.165\nsamples = 11\nvalue = [10, 1]"] ;
277 -> 279 ;
280 [label="gini = 0.5\nsamples = 2\nvalue = [1, 1]"] ;
270 -> 280 ;
281 [label="gini = 0.0\nsamples = 32\nvalue = [32, 0]"] ;
269 -> 281 ;
282 [label="Fare <= 8.285\ngini = 0.36\nsamples = 17\nvalue = [13, 4]"] ;
268 -> 282 ;
283 [label="gini = 0.0\nsamples = 1\nvalue = [0, 1]"] ;
282 -> 283 ;
284 [label="Fare <= 14.16\ngini = 0.305\nsamples = 16\nvalue = [13, 3]"] ;
282 -> 284 ;
285 [label="Fare <= 13.431\ngini = 0.397\nsamples = 11\nvalue = [8, 3]"] ;
284 -> 285 ;
286 [label="Fare <= 9.106\ngini = 0.32\nsamples = 10\nvalue = [8, 2]"] ;
285 -> 286 ;
287 [label="gini = 0.0\nsamples = 3\nvalue = [3, 0]"] ;
286 -> 287 ;
288 [label="Age <= 29.85\ngini = 0.408\nsamples = 7\nvalue = [5, 2]"] ;
286 -> 288 ;
289 [label="Fare <= 11.25\ngini = 0.5\nsamples = 2\nvalue = [1, 1]"] ;
288 -> 289 ;
290 [label="gini = 0.0\nsamples = 1\nvalue = [1, 0]"] ;
289 -> 290 ;
291 [label="gini = 0.0\nsamples = 1\nvalue = [0, 1]"] ;
289 -> 291 ;
292 [label="Fare <= 10.0\ngini = 0.32\nsamples = 5\nvalue = [4, 1]"] ;
288 -> 292 ;
293 [label="gini = 0.0\nsamples = 1\nvalue = [0, 1]"] ;
292 -> 293 ;
294 [label="gini = 0.0\nsamples = 4\nvalue = [4, 0]"] ;
292 -> 294 ;
295 [label="gini = 0.0\nsamples = 1\nvalue = [0, 1]"] ;
285 -> 295 ;
296 [label="gini = 0.0\nsamples = 5\nvalue = [5, 0]"] ;
284 -> 296 ;
297 [label="Fare <= 15.373\ngini = 0.287\nsamples = 23\nvalue = [19, 4]"] ;
189 -> 297 ;
298 [label="gini = 0.0\nsamples = 2\nvalue = [0, 2]"] ;
297 -> 298 ;
299 [label="Age <= 27.0\ngini = 0.172\nsamples = 21\nvalue = [19, 2]"] ;
297 -> 299 ;
300 [label="Fare <= 15.921\ngini = 0.346\nsamples = 9\nvalue = [7, 2]"] ;
299 -> 300 ;
301 [label="gini = 0.0\nsamples = 1\nvalue = [0, 1]"] ;
300 -> 301 ;
302 [label="Age <= 25.5\ngini = 0.219\nsamples = 8\nvalue = [7, 1]"] ;
300 -> 302 ;
303 [label="gini = 0.0\nsamples = 6\nvalue = [6, 0]"] ;
302 -> 303 ;
304 [label="Fare <= 19.681\ngini = 0.5\nsamples = 2\nvalue = [1, 1]"] ;
302 -> 304 ;
305 [label="gini = 0.0\nsamples = 1\nvalue = [0, 1]"] ;
304 -> 305 ;
306 [label="gini = 0.0\nsamples = 1\nvalue = [1, 0]"] ;
304 -> 306 ;
307 [label="gini = 0.0\nsamples = 12\nvalue = [12, 0]"] ;
299 -> 307 ;
308 [label="gini = 0.0\nsamples = 1\nvalue = [0, 1]"] ;
188 -> 308 ;
309 [label="gini = 0.0\nsamples = 11\nvalue = [11, 0]"] ;
187 -> 309 ;
310 [label="Fare <= 7.815\ngini = 0.457\nsamples = 17\nvalue = [11, 6]"] ;
186 -> 310 ;
311 [label="gini = 0.0\nsamples = 3\nvalue = [3, 0]"] ;
310 -> 311 ;
312 [label="Fare <= 7.875\ngini = 0.49\nsamples = 14\nvalue = [8, 6]"] ;
310 -> 312 ;
313 [label="gini = 0.0\nsamples = 1\nvalue = [0, 1]"] ;
312 -> 313 ;
314 [label="Fare <= 7.91\ngini = 0.473\nsamples = 13\nvalue = [8, 5]"] ;
312 -> 314 ;
315 [label="gini = 0.0\nsamples = 1\nvalue = [1, 0]"] ;
314 -> 315 ;
316 [label="Fare <= 8.206\ngini = 0.486\nsamples = 12\nvalue = [7, 5]"] ;
314 -> 316 ;
317 [label="Fare <= 7.988\ngini = 0.48\nsamples = 5\nvalue = [2, 3]"] ;
316 -> 317 ;
318 [label="Age <= 31.5\ngini = 0.5\nsamples = 4\nvalue = [2, 2]"] ;
317 -> 318 ;
319 [label="gini = 0.0\nsamples = 1\nvalue = [0, 1]"] ;
318 -> 319 ;
320 [label="gini = 0.444\nsamples = 3\nvalue = [2, 1]"] ;
318 -> 320 ;
321 [label="gini = 0.0\nsamples = 1\nvalue = [0, 1]"] ;
317 -> 321 ;
322 [label="Fare <= 11.75\ngini = 0.408\nsamples = 7\nvalue = [5, 2]"] ;
316 -> 322 ;
323 [label="gini = 0.0\nsamples = 3\nvalue = [3, 0]"] ;
322 -> 323 ;
324 [label="Fare <= 14.425\ngini = 0.5\nsamples = 4\nvalue = [2, 2]"] ;
322 -> 324 ;
325 [label="gini = 0.0\nsamples = 1\nvalue = [0, 1]"] ;
324 -> 325 ;
326 [label="Age <= 31.5\ngini = 0.444\nsamples = 3\nvalue = [2, 1]"] ;
324 -> 326 ;
327 [label="gini = 0.0\nsamples = 1\nvalue = [1, 0]"] ;
326 -> 327 ;
328 [label="Fare <= 20.925\ngini = 0.5\nsamples = 2\nvalue = [1, 1]"] ;
326 -> 328 ;
329 [label="gini = 0.0\nsamples = 1\nvalue = [1, 0]"] ;
328 -> 329 ;
330 [label="gini = 0.0\nsamples = 1\nvalue = [0, 1]"] ;
328 -> 330 ;
331 [label="Fare <= 7.91\ngini = 0.108\nsamples = 105\nvalue = [99, 6]"] ;
185 -> 331 ;
332 [label="gini = 0.0\nsamples = 36\nvalue = [36, 0]"] ;
331 -> 332 ;
333 [label="Fare <= 7.988\ngini = 0.159\nsamples = 69\nvalue = [63, 6]"] ;
331 -> 333 ;
334 [label="Age <= 38.0\ngini = 0.5\nsamples = 4\nvalue = [2, 2]"] ;
333 -> 334 ;
335 [label="gini = 0.0\nsamples = 1\nvalue = [1, 0]"] ;
334 -> 335 ;
336 [label="Age <= 41.5\ngini = 0.444\nsamples = 3\nvalue = [1, 2]"] ;
334 -> 336 ;
337 [label="gini = 0.5\nsamples = 2\nvalue = [1, 1]"] ;
336 -> 337 ;
338 [label="gini = 0.0\nsamples = 1\nvalue = [0, 1]"] ;
336 -> 338 ;
339 [label="Fare <= 13.25\ngini = 0.116\nsamples = 65\nvalue = [61, 4]"] ;
333 -> 339 ;
340 [label="Age <= 59.5\ngini = 0.188\nsamples = 38\nvalue = [34, 4]"] ;
339 -> 340 ;
341 [label="Fare <= 12.938\ngini = 0.157\nsamples = 35\nvalue = [32, 3]"] ;
340 -> 341 ;
342 [label="Age <= 44.5\ngini = 0.08\nsamples = 24\nvalue = [23, 1]"] ;
341 -> 342 ;
343 [label="gini = 0.0\nsamples = 17\nvalue = [17, 0]"] ;
342 -> 343 ;
344 [label="Age <= 46.0\ngini = 0.245\nsamples = 7\nvalue = [6, 1]"] ;
342 -> 344 ;
345 [label="gini = 0.0\nsamples = 1\nvalue = [0, 1]"] ;
344 -> 345 ;
346 [label="gini = 0.0\nsamples = 6\nvalue = [6, 0]"] ;
344 -> 346 ;
347 [label="Age <= 45.0\ngini = 0.298\nsamples = 11\nvalue = [9, 2]"] ;
341 -> 347 ;
348 [label="Age <= 40.5\ngini = 0.375\nsamples = 8\nvalue = [6, 2]"] ;
347 -> 348 ;
349 [label="Age <= 35.0\ngini = 0.278\nsamples = 6\nvalue = [5, 1]"] ;
348 -> 349 ;
350 [label="gini = 0.444\nsamples = 3\nvalue = [2, 1]"] ;
349 -> 350 ;
351 [label="gini = 0.0\nsamples = 3\nvalue = [3, 0]"] ;
349 -> 351 ;
352 [label="gini = 0.5\nsamples = 2\nvalue = [1, 1]"] ;
348 -> 352 ;
353 [label="gini = 0.0\nsamples = 3\nvalue = [3, 0]"] ;
347 -> 353 ;
354 [label="Age <= 64.0\ngini = 0.444\nsamples = 3\nvalue = [2, 1]"] ;
340 -> 354 ;
355 [label="gini = 0.0\nsamples = 1\nvalue = [0, 1]"] ;
354 -> 355 ;
356 [label="gini = 0.0\nsamples = 2\nvalue = [2, 0]"] ;
354 -> 356 ;
357 [label="gini = 0.0\nsamples = 27\nvalue = [27, 0]"] ;
339 -> 357 ;
358 [label="Fare <= 26.469\ngini = 0.441\nsamples = 149\nvalue = [100, 49]"] ;
178 -> 358 ;
359 [label="gini = 0.0\nsamples = 4\nvalue = [0, 4]"] ;
358 -> 359 ;
360 [label="Fare <= 387.665\ngini = 0.428\nsamples = 145\nvalue = [100, 45]"] ;
358 -> 360 ;
361 [label="Age <= 22.5\ngini = 0.421\nsamples = 143\nvalue = [100, 43]"] ;
360 -> 361 ;
362 [label="Fare <= 109.892\ngini = 0.227\nsamples = 23\nvalue = [20, 3]"] ;
361 -> 362 ;
363 [label="Age <= 8.5\ngini = 0.1\nsamples = 19\nvalue = [18, 1]"] ;
362 -> 363 ;
364 [label="Fare <= 32.938\ngini = 0.375\nsamples = 4\nvalue = [3, 1]"] ;
363 -> 364 ;
365 [label="gini = 0.0\nsamples = 2\nvalue = [2, 0]"] ;
364 -> 365 ;
366 [label="Age <= 7.5\ngini = 0.5\nsamples = 2\nvalue = [1, 1]"] ;
364 -> 366 ;
367 [label="gini = 0.0\nsamples = 1\nvalue = [1, 0]"] ;
366 -> 367 ;
368 [label="gini = 0.0\nsamples = 1\nvalue = [0, 1]"] ;
366 -> 368 ;
369 [label="gini = 0.0\nsamples = 15\nvalue = [15, 0]"] ;
363 -> 369 ;
370 [label="Fare <= 127.817\ngini = 0.5\nsamples = 4\nvalue = [2, 2]"] ;
362 -> 370 ;
371 [label="gini = 0.0\nsamples = 2\nvalue = [0, 2]"] ;
370 -> 371 ;
372 [label="gini = 0.0\nsamples = 2\nvalue = [2, 0]"] ;
370 -> 372 ;
373 [label="Age <= 27.5\ngini = 0.444\nsamples = 120\nvalue = [80, 40]"] ;
361 -> 373 ;
374 [label="Fare <= 151.29\ngini = 0.473\nsamples = 13\nvalue = [5, 8]"] ;
373 -> 374 ;
375 [label="Age <= 25.5\ngini = 0.397\nsamples = 11\nvalue = [3, 8]"] ;
374 -> 375 ;
376 [label="Fare <= 48.51\ngini = 0.5\nsamples = 6\nvalue = [3, 3]"] ;
375 -> 376 ;
377 [label="gini = 0.0\nsamples = 1\nvalue = [1, 0]"] ;
376 -> 377 ;
378 [label="Age <= 24.5\ngini = 0.48\nsamples = 5\nvalue = [2, 3]"] ;
376 -> 378 ;
379 [label="Fare <= 68.429\ngini = 0.444\nsamples = 3\nvalue = [2, 1]"] ;
378 -> 379 ;
380 [label="gini = 0.0\nsamples = 1\nvalue = [0, 1]"] ;
379 -> 380 ;
381 [label="gini = 0.0\nsamples = 2\nvalue = [2, 0]"] ;
379 -> 381 ;
382 [label="gini = 0.0\nsamples = 2\nvalue = [0, 2]"] ;
378 -> 382 ;
383 [label="gini = 0.0\nsamples = 5\nvalue = [0, 5]"] ;
375 -> 383 ;
384 [label="gini = 0.0\nsamples = 2\nvalue = [2, 0]"] ;
374 -> 384 ;
385 [label="Age <= 53.0\ngini = 0.419\nsamples = 107\nvalue = [75, 32]"] ;
373 -> 385 ;
386 [label="Fare <= 26.775\ngini = 0.45\nsamples = 85\nvalue = [56, 29]"] ;
385 -> 386 ;
387 [label="Age <= 46.5\ngini = 0.346\nsamples = 9\nvalue = [2, 7]"] ;
386 -> 387 ;
388 [label="Age <= 40.0\ngini = 0.408\nsamples = 7\nvalue = [2, 5]"] ;
387 -> 388 ;
389 [label="Age <= 31.85\ngini = 0.32\nsamples = 5\nvalue = [1, 4]"] ;
388 -> 389 ;
390 [label="Age <= 28.85\ngini = 0.444\nsamples = 3\nvalue = [1, 2]"] ;
389 -> 390 ;
391 [label="gini = 0.0\nsamples = 1\nvalue = [0, 1]"] ;
390 -> 391 ;
392 [label="gini = 0.5\nsamples = 2\nvalue = [1, 1]"] ;
390 -> 392 ;
393 [label="gini = 0.0\nsamples = 2\nvalue = [0, 2]"] ;
389 -> 393 ;
394 [label="gini = 0.5\nsamples = 2\nvalue = [1, 1]"] ;
388 -> 394 ;
395 [label="gini = 0.0\nsamples = 2\nvalue = [0, 2]"] ;
387 -> 395 ;
396 [label="Fare <= 29.1\ngini = 0.411\nsamples = 76\nvalue = [54, 22]"] ;
386 -> 396 ;
397 [label="gini = 0.0\nsamples = 9\nvalue = [9, 0]"] ;
396 -> 397 ;
398 [label="Fare <= 30.598\ngini = 0.441\nsamples = 67\nvalue = [45, 22]"] ;
396 -> 398 ;
399 [label="Fare <= 30.285\ngini = 0.469\nsamples = 8\nvalue = [3, 5]"] ;
398 -> 399 ;
400 [label="Age <= 31.1\ngini = 0.48\nsamples = 5\nvalue = [3, 2]"] ;
399 -> 400 ;
401 [label="Age <= 29.35\ngini = 0.444\nsamples = 3\nvalue = [1, 2]"] ;
400 -> 401 ;
402 [label="gini = 0.0\nsamples = 1\nvalue = [1, 0]"] ;
401 -> 402 ;
403 [label="gini = 0.0\nsamples = 2\nvalue = [0, 2]"] ;
401 -> 403 ;
404 [label="gini = 0.0\nsamples = 2\nvalue = [2, 0]"] ;
400 -> 404 ;
405 [label="gini = 0.0\nsamples = 3\nvalue = [0, 3]"] ;
399 -> 405 ;
406 [label="Age <= 47.5\ngini = 0.41\nsamples = 59\nvalue = [42, 17]"] ;
398 -> 406 ;
407 [label="Age <= 43.0\ngini = 0.37\nsamples = 49\nvalue = [37, 12]"] ;
406 -> 407 ;
408 [label="Age <= 31.5\ngini = 0.414\nsamples = 41\nvalue = [29, 12]"] ;
407 -> 408 ;
409 [label="Fare <= 61.8\ngini = 0.302\nsamples = 27\nvalue = [22, 5]"] ;
408 -> 409 ;
410 [label="Fare <= 54.248\ngini = 0.388\nsamples = 19\nvalue = [14, 5]"] ;
409 -> 410 ;
411 [label="Fare <= 36.252\ngini = 0.245\nsamples = 14\nvalue = [12, 2]"] ;
410 -> 411 ;
412 [label="Fare <= 35.25\ngini = 0.444\nsamples = 6\nvalue = [4, 2]"] ;
411 -> 412 ;
413 [label="gini = 0.0\nsamples = 4\nvalue = [4, 0]"] ;
412 -> 413 ;
414 [label="gini = 0.0\nsamples = 2\nvalue = [0, 2]"] ;
412 -> 414 ;
415 [label="gini = 0.0\nsamples = 8\nvalue = [8, 0]"] ;
411 -> 415 ;
416 [label="Age <= 28.85\ngini = 0.48\nsamples = 5\nvalue = [2, 3]"] ;
410 -> 416 ;
417 [label="gini = 0.0\nsamples = 1\nvalue = [1, 0]"] ;
416 -> 417 ;
418 [label="Age <= 30.35\ngini = 0.375\nsamples = 4\nvalue = [1, 3]"] ;
416 -> 418 ;
419 [label="gini = 0.444\nsamples = 3\nvalue = [1, 2]"] ;
418 -> 419 ;
420 [label="gini = 0.0\nsamples = 1\nvalue = [0, 1]"] ;
418 -> 420 ;
421 [label="gini = 0.0\nsamples = 8\nvalue = [8, 0]"] ;
409 -> 421 ;
422 [label="Fare <= 52.277\ngini = 0.5\nsamples = 14\nvalue = [7, 7]"] ;
408 -> 422 ;
423 [label="Fare <= 31.137\ngini = 0.375\nsamples = 4\nvalue = [3, 1]"] ;
422 -> 423 ;
424 [label="gini = 0.0\nsamples = 1\nvalue = [0, 1]"] ;
423 -> 424 ;
425 [label="gini = 0.0\nsamples = 3\nvalue = [3, 0]"] ;
423 -> 425 ;
426 [label="Fare <= 64.998\ngini = 0.48\nsamples = 10\nvalue = [4, 6]"] ;
422 -> 426 ;
427 [label="Fare <= 52.827\ngini = 0.32\nsamples = 5\nvalue = [1, 4]"] ;
426 -> 427 ;
428 [label="gini = 0.0\nsamples = 2\nvalue = [0, 2]"] ;
427 -> 428 ;
429 [label="Fare <= 54.798\ngini = 0.444\nsamples = 3\nvalue = [1, 2]"] ;
427 -> 429 ;
430 [label="gini = 0.0\nsamples = 1\nvalue = [1, 0]"] ;
429 -> 430 ;
431 [label="gini = 0.0\nsamples = 2\nvalue = [0, 2]"] ;
429 -> 431 ;
432 [label="Fare <= 84.425\ngini = 0.48\nsamples = 5\nvalue = [3, 2]"] ;
426 -> 432 ;
433 [label="gini = 0.0\nsamples = 2\nvalue = [2, 0]"] ;
432 -> 433 ;
434 [label="Fare <= 136.731\ngini = 0.444\nsamples = 3\nvalue = [1, 2]"] ;
432 -> 434 ;
435 [label="gini = 0.0\nsamples = 2\nvalue = [0, 2]"] ;
434 -> 435 ;
436 [label="gini = 0.0\nsamples = 1\nvalue = [1, 0]"] ;
434 -> 436 ;
437 [label="gini = 0.0\nsamples = 8\nvalue = [8, 0]"] ;
407 -> 437 ;
438 [label="Age <= 49.5\ngini = 0.5\nsamples = 10\nvalue = [5, 5]"] ;
406 -> 438 ;
439 [label="Fare <= 99.994\ngini = 0.32\nsamples = 5\nvalue = [1, 4]"] ;
438 -> 439 ;
440 [label="gini = 0.0\nsamples = 4\nvalue = [0, 4]"] ;
439 -> 440 ;
441 [label="gini = 0.0\nsamples = 1\nvalue = [1, 0]"] ;
439 -> 441 ;
442 [label="Fare <= 120.037\ngini = 0.32\nsamples = 5\nvalue = [4, 1]"] ;
438 -> 442 ;
443 [label="gini = 0.0\nsamples = 4\nvalue = [4, 0]"] ;
442 -> 443 ;
444 [label="gini = 0.0\nsamples = 1\nvalue = [0, 1]"] ;
442 -> 444 ;
445 [label="Age <= 75.5\ngini = 0.236\nsamples = 22\nvalue = [19, 3]"] ;
385 -> 445 ;
446 [label="Fare <= 35.077\ngini = 0.172\nsamples = 21\nvalue = [19, 2]"] ;
445 -> 446 ;
447 [label="gini = 0.0\nsamples = 11\nvalue = [11, 0]"] ;
446 -> 447 ;
448 [label="Fare <= 37.25\ngini = 0.32\nsamples = 10\nvalue = [8, 2]"] ;
446 -> 448 ;
449 [label="gini = 0.0\nsamples = 1\nvalue = [0, 1]"] ;
448 -> 449 ;
450 [label="Fare <= 78.244\ngini = 0.198\nsamples = 9\nvalue = [8, 1]"] ;
448 -> 450 ;
451 [label="gini = 0.0\nsamples = 6\nvalue = [6, 0]"] ;
450 -> 451 ;
452 [label="Fare <= 96.237\ngini = 0.444\nsamples = 3\nvalue = [2, 1]"] ;
450 -> 452 ;
453 [label="gini = 0.0\nsamples = 1\nvalue = [0, 1]"] ;
452 -> 453 ;
454 [label="gini = 0.0\nsamples = 2\nvalue = [2, 0]"] ;
452 -> 454 ;
455 [label="gini = 0.0\nsamples = 1\nvalue = [0, 1]"] ;
445 -> 455 ;
456 [label="gini = 0.0\nsamples = 2\nvalue = [0, 2]"] ;
360 -> 456 ;
}